Language model created by QuickLM on Mon Nov 20 19:18:51 EST 2017
Copyright (c) 1996-2010 Carnegie Mellon University and Alexander I. Rudnicky

The model is in standard ARPA format, designed by Doug Paul while he was at MITRE.

The code that was used to produce this language model is available in Open Source.
Please visit http://www.speech.cs.cmu.edu/tools/ for more information

The (fixed) discount mass is 0.5. The backoffs are computed using the ratio method.
This model based on a corpus of 5 sentences and 7 words

\data\
ngram 1=7
ngram 2=10
ngram 3=5

\1-grams:
-0.7782 </s> -0.3010
-0.7782 <s> -0.2218
-1.4771 COME-HERE -0.2218
-1.4771 END-STREAM -0.2218
-1.4771 GO-AWAY -0.2218
-1.4771 ROBOTICS-IS-FUN -0.2218
-1.4771 START-STREAM -0.2218

\2-grams:
-1.0000 <s> COME-HERE 0.0000
-1.0000 <s> END-STREAM 0.0000
-1.0000 <s> GO-AWAY 0.0000
-1.0000 <s> ROBOTICS-IS-FUN 0.0000
-1.0000 <s> START-STREAM 0.0000
-0.3010 COME-HERE </s> -0.3010
-0.3010 END-STREAM </s> -0.3010
-0.3010 GO-AWAY </s> -0.3010
-0.3010 ROBOTICS-IS-FUN </s> -0.3010
-0.3010 START-STREAM </s> -0.3010

\3-grams:
-0.3010 <s> COME-HERE </s>
-0.3010 <s> END-STREAM </s>
-0.3010 <s> GO-AWAY </s>
-0.3010 <s> ROBOTICS-IS-FUN </s>
-0.3010 <s> START-STREAM </s>

\end\
