Language model created by QuickLM on Tue Nov 21 13:30:49 EST 2017
Copyright (c) 1996-2010 Carnegie Mellon University and Alexander I. Rudnicky

The model is in standard ARPA format, designed by Doug Paul while he was at MITRE.

The code that was used to produce this language model is available in Open Source.
Please visit http://www.speech.cs.cmu.edu/tools/ for more information

The (fixed) discount mass is 0.5. The backoffs are computed using the ratio method.
This model based on a corpus of 7 sentences and 9 words

\data\
ngram 1=9
ngram 2=14
ngram 3=7

\1-grams:
-0.7782 </s> -0.3010
-0.7782 <s> -0.2218
-1.6232 BACKWARD -0.2218
-1.6232 FORWARD -0.2218
-1.6232 ROTATE-LEFT -0.2218
-1.6232 ROTATE-RIGHT -0.2218
-1.6232 SLIGHT-LEFT -0.2218
-1.6232 SLIGHT-RIGHT -0.2218
-1.6232 STOP -0.2218

\2-grams:
-1.1461 <s> BACKWARD 0.0000
-1.1461 <s> FORWARD 0.0000
-1.1461 <s> ROTATE-LEFT 0.0000
-1.1461 <s> ROTATE-RIGHT 0.0000
-1.1461 <s> SLIGHT-LEFT 0.0000
-1.1461 <s> SLIGHT-RIGHT 0.0000
-1.1461 <s> STOP 0.0000
-0.3010 BACKWARD </s> -0.3010
-0.3010 FORWARD </s> -0.3010
-0.3010 ROTATE-LEFT </s> -0.3010
-0.3010 ROTATE-RIGHT </s> -0.3010
-0.3010 SLIGHT-LEFT </s> -0.3010
-0.3010 SLIGHT-RIGHT </s> -0.3010
-0.3010 STOP </s> -0.3010

\3-grams:
-0.3010 <s> BACKWARD </s>
-0.3010 <s> FORWARD </s>
-0.3010 <s> ROTATE-LEFT </s>
-0.3010 <s> ROTATE-RIGHT </s>
-0.3010 <s> SLIGHT-LEFT </s>
-0.3010 <s> SLIGHT-RIGHT </s>
-0.3010 <s> STOP </s>

\end\
